{"learner":{"attributes":{"best_iteration":"0","best_score":"0.4686592839479626"},"feature_names":[],"feature_types":[],"gradient_booster":{"model":{"cats":{"enc":[],"feature_segments":[],"sorted_idx":[]},"gbtree_model_param":{"num_parallel_tree":"1","num_trees":"11"},"iteration_indptr":[0,1,2,3,4,5,6,7,8,9,10,11],"tree_info":[0,0,0,0,0,0,0,0,0,0,0],"trees":[{"base_weights":[2.9158715E-2,-2.2128129E-1,3.5710126E-1,6.872833E-1,-3.2645726E-1,-6.583325E-1,4.4243506E-1,-2.5849435E-2,9.644357E-1,-1.2769067E-1,-7.4122494E-1,-9.086929E-2,1.4052281E-2,7.630921E-1,2.0036606E-1,-1.7928493E-3,1.199134E-1,-4.526631E-2,2.1644767E-2,-2.8332952E-2,-1.0956395E-1,2.7804926E-2,1.0656078E-1,-7.859956E-2,3.478267E-2],"categories":[],"categories_nodes":[],"categories_segments":[],"categories_sizes":[],"default_left":[0,0,0,0,0,0,0,0,0,0,0,0,0,0,0,0,0,0,0,0,0,0,0,0,0],"id":0,"left_children":[1,3,5,7,9,11,13,-1,15,17,19,-1,-1,21,23,-1,-1,-1,-1,-1,-1,-1,-1,-1,-1],"loss_changes":[1.1906827E1,8.086296E0,5.7277822E0,2.5711684E0,6.0402718E0,1.1808417E0,4.3859787E0,0E0,1.6496592E0,5.859174E0,3.5681953E0,0E0,0E0,3.3424168E0,5.317087E0,0E0,0E0,0E0,0E0,0E0,0E0,0E0,0E0,0E0,0E0],"parents":[2147483647,0,0,1,1,2,2,3,3,4,4,5,5,6,6,8,8,9,9,10,10,13,13,14,14],"right_children":[2,4,6,8,10,12,14,-1,16,18,20,-1,-1,22,24,-1,-1,-1,-1,-1,-1,-1,-1,-1,-1],"split_conditions":[7.8886974E-1,-6.886192E-1,-1.1347044E0,-9.2790395E-1,-7.6609105E-2,4.4146833E-1,-9.577747E-2,-2.5849435E-2,-8.173747E-1,-1.3035299E-1,-5.179956E-1,-9.086929E-2,1.4052281E-2,-8.634448E-1,4.955216E-3,-1.7928493E-3,1.199134E-1,-4.526631E-2,2.1644767E-2,-2.8332952E-2,-1.0956395E-1,2.7804926E-2,1.0656078E-1,-7.859956E-2,3.478267E-2],"split_indices":[8,2,6,1,5,4,4,0,2,1,6,0,0,4,4,0,0,0,0,0,0,0,0,0,0],"split_type":[0,0,0,0,0,0,0,0,0,0,0,0,0,0,0,0,0,0,0,0,0,0,0,0,0],"sum_hessian":[1.4301335E2,8.1272896E1,6.174046E1,7.857877E0,7.3415016E1,4.2657046E0,5.7474754E1,1.7960861E0,6.0617905E0,5.051492E1,2.2900097E1,3.1431506E0,1.1225538E0,2.379814E1,3.3676613E1,1.3470645E0,4.714726E0,2.5818737E1,2.4696184E1,1.0776516E1,1.2123581E1,9.878473E0,1.3919667E1,3.8166828E0,2.985993E1],"tree_param":{"num_deleted":"0","num_feature":"10","num_nodes":"25","size_leaf_vector":"1"}},{"base_weights":[-7.792478E-2,-2.9281196E-1,2.2690353E-1,3.302929E-1,-3.6793533E-1,-2.3146649E-1,4.177514E-1,6.23187E-1,-8.747999E-2,-2.0918763E-1,-7.314076E-1,7.2809803E-1,-5.111605E-1,5.1754063E-1,-5.436949E-1,8.90344E-2,-4.558545E-2,-3.6335282E-2,3.9801836E-2,-9.8996915E-2,-1.9456558E-4,1.2486392E-1,-1.6867489E-2,-8.7541275E-2,1.4637916E-2,2.6127381E-2,1.0621949E-1,-8.011773E-2,1.33685665E-2],"categories":[],"categories_nodes":[],"categories_segments":[],"categories_sizes":[],"default_left":[0,0,0,0,0,0,0,0,0,0,0,0,0,0,0,0,0,0,0,0,0,0,0,0,0,0,0,0,0],"id":1,"left_children":[1,3,5,7,9,11,13,15,-1,17,19,21,23,25,27,-1,-1,-1,-1,-1,-1,-1,-1,-1,-1,-1,-1,-1,-1],"loss_changes":[9.732272E0,4.1933074E0,5.483284E0,4.0345283E0,4.3533936E0,5.40295E0,4.4866343E0,2.8668356E0,0E0,5.3642397E0,4.400387E0,2.37802E0,3.7451346E0,5.3365355E0,9.110086E-1,0E0,0E0,0E0,0E0,0E0,0E0,0E0,0E0,0E0,0E0,0E0,0E0,0E0,0E0],"parents":[2147483647,0,0,1,1,2,2,3,3,4,4,5,5,6,6,7,7,9,9,10,10,11,11,12,12,13,13,14,14],"right_children":[2,4,6,8,10,12,14,16,-1,18,20,22,24,26,28,-1,-1,-1,-1,-1,-1,-1,-1,-1,-1,-1,-1,-1,-1],"split_conditions":[7.8886974E-1,-6.700253E-1,-5.470756E-1,3.589498E-1,-7.6609105E-2,-6.2363064E-1,1.8654025E0,8.4570575E-1,-8.747999E-2,-1.6323939E-1,2.4211405E-1,4.6166304E-1,8.876258E-2,1.0976402E0,2.077834E0,8.90344E-2,-4.558545E-2,-3.6335282E-2,3.9801836E-2,-9.8996915E-2,-1.9456558E-4,1.2486392E-1,-1.6867489E-2,-8.7541275E-2,1.4637916E-2,2.6127381E-2,1.0621949E-1,-8.011773E-2,1.33685665E-2],"split_indices":[8,2,0,4,5,2,1,0,0,5,5,5,1,0,0,0,0,0,0,0,0,0,0,0,0,0,0,0,0],"split_type":[0,0,0,0,0,0,0,0,0,0,0,0,0,0,0,0,0,0,0,0,0,0,0,0,0,0,0,0,0],"sum_hessian":[1.4656161E2,8.598579E1,6.0575832E1,8.885878E0,7.709991E1,1.774466E1,4.2831173E1,7.5369234E0,1.348954E0,5.4759186E1,2.2340725E1,3.6430416E0,1.4101618E1,3.9221996E1,3.6091743E0,6.18137E0,1.3555534E0,4.3991627E1,1.0767556E1,1.6230587E1,6.1101375E0,2.056788E0,1.5862536E0,8.861394E0,5.2402244E0,2.7678576E1,1.1543421E1,2.4827037E0,1.1264706E0],"tree_param":{"num_deleted":"0","num_feature":"10","num_nodes":"29","size_leaf_vector":"1"}},{"base_weights":[-1.7240314E-2,-2.52765E-1,1.5526885E-1,4.6389976E-1,-4.2594618E-1,2.1797621E-1,-8.357319E-1,1.008057E-2,1.256606E0,-5.898367E-1,1.6699658E-1,-7.0422214E-1,2.691774E-1,-1.1188837E-1,-6.39191E-4,-5.8250904E-2,3.8280055E-2,2.6141385E-2,1.6870263E-1,3.8133059E-3,-6.6849075E-2,5.544758E-2,-1.0272799E-1,1.8801678E-2,-1.0447647E-1,3.1663414E-2,-8.15197E-2],"categories":[],"categories_nodes":[],"categories_segments":[],"categories_sizes":[],"default_left":[0,0,0,0,0,0,0,0,0,0,0,0,0,0,0,0,0,0,0,0,0,0,0,0,0,0,0],"id":2,"left_children":[1,3,5,7,9,11,13,15,17,19,21,23,25,-1,-1,-1,-1,-1,-1,-1,-1,-1,-1,-1,-1,-1,-1],"loss_changes":[5.936203E0,7.860565E0,5.4267592E0,4.482295E0,4.9813976E0,3.974818E0,1.2208486E0,2.2006476E0,1.5040765E0,1.9807806E0,5.9654636E0,1.5617025E0,4.2037673E0,0E0,0E0,0E0,0E0,0E0,0E0,0E0,0E0,0E0,0E0,0E0,0E0,0E0,0E0],"parents":[2147483647,0,0,1,1,2,2,3,3,4,4,5,5,6,6,7,7,8,8,9,9,10,10,11,11,12,12],"right_children":[2,4,6,8,10,12,14,16,18,20,22,24,26,-1,-1,-1,-1,-1,-1,-1,-1,-1,-1,-1,-1,-1,-1],"split_conditions":[2.116976E-1,-1.0024742E0,1.8654025E0,-6.988464E-2,3.8296258E-1,-1.1347044E0,1.290103E0,-3.133853E-1,-7.7694464E-1,-7.2241557E-1,7.6880467E-1,-3.7303546E-1,8.42193E-1,-1.1188837E-1,-6.39191E-4,-5.8250904E-2,3.8280055E-2,2.6141385E-2,1.6870263E-1,3.8133059E-3,-6.6849075E-2,5.544758E-2,-1.0272799E-1,1.8801678E-2,-1.0447647E-1,3.1663414E-2,-8.15197E-2],"split_indices":[9,6,1,2,1,6,6,1,3,2,3,2,5,0,0,0,0,0,0,0,0,0,0,0,0,0,0],"split_type":[0,0,0,0,0,0,0,0,0,0,0,0,0,0,0,0,0,0,0,0,0,0,0,0,0,0,0],"sum_hessian":[1.4413739E2,6.0741936E1,8.3395454E1,1.1494846E1,4.924709E1,7.916612E1,4.229335E0,7.953968E0,3.5408788E0,3.858685E1,1.0660242E1,3.4933035E0,7.567282E1,2.8926167E0,1.3367178E0,2.8538134E0,5.1001544E0,1.5543498E0,1.986529E0,4.3524337E0,3.4234413E1,8.453313E0,2.2069283E0,1.0887122E0,2.404591E0,7.317824E1,2.4945796E0],"tree_param":{"num_deleted":"0","num_feature":"10","num_nodes":"27","size_leaf_vector":"1"}},{"base_weights":[-2.0170747E-3,-7.486862E-1,4.4334125E-2,1.09224334E-1,-1.0964574E0,5.1056415E-1,-6.5684624E-2,-4.09784E-2,6.2694594E-2,-2.4778472E-2,-1.2198573E-1,-6.693082E-1,6.942861E-1,2.2330073E-1,-2.884929E-1,-1.0210415E-1,1.4960232E-2,4.1838374E-2,1.6923736E-1,-1.0569061E-2,9.5720515E-2,-5.7758777E-3,-5.293656E-2],"categories":[],"categories_nodes":[],"categories_segments":[],"categories_sizes":[],"default_left":[0,0,0,0,0,0,0,0,0,0,0,0,0,0,0,0,0,0,0,0,0,0,0],"id":3,"left_children":[1,3,5,7,9,11,13,-1,-1,-1,-1,15,17,19,21,-1,-1,-1,-1,-1,-1,-1,-1],"loss_changes":[5.1539903E0,2.716683E0,7.227902E0,1.1758857E0,3.558421E-1,6.2940817E0,7.428197E0,0E0,0E0,0E0,0E0,1.3430525E0,5.8347864E0,1.22586355E1,3.5826764E0,0E0,0E0,0E0,0E0,0E0,0E0,0E0,0E0],"parents":[2147483647,0,0,1,1,2,2,3,3,4,4,5,5,6,6,11,11,12,12,13,13,14,14],"right_children":[2,4,6,8,10,12,14,-1,-1,-1,-1,16,18,20,22,-1,-1,-1,-1,-1,-1,-1,-1],"split_conditions":[-2.08733E0,-3.4583738E0,-4.2557856E-1,-4.116633E0,-4.2385066E-1,-9.9010164E-1,-9.577747E-2,-4.09784E-2,6.2694594E-2,-2.4778472E-2,-1.2198573E-1,-3.1739965E-1,5.3696528E-2,1.1613949E-1,-1.2378776E-1,-1.0210415E-1,1.4960232E-2,4.1838374E-2,1.6923736E-1,-1.0569061E-2,9.5720515E-2,-5.7758777E-3,-5.293656E-2],"split_indices":[3,3,3,3,2,7,4,0,0,0,0,2,5,0,0,0,0,0,0,0,0,0,0],"split_type":[0,0,0,0,0,0,0,0,0,0,0,0,0,0,0,0,0,0,0,0,0,0,0],"sum_hessian":[1.4696141E2,7.7040935E0,1.3925732E2,2.4200485E0,5.284045E0,2.5892239E1,1.1336508E2,1.312636E0,1.1074126E0,1.0526328E0,4.2314124E0,3.132447E0,2.2759792E1,4.9352287E1,6.4012794E1,2.018601E0,1.1138461E0,1.8942642E1,3.8171494E0,3.466763E1,1.4684658E1,3.332769E1,3.0685106E1],"tree_param":{"num_deleted":"0","num_feature":"10","num_nodes":"23","size_leaf_vector":"1"}},{"base_weights":[-4.5234587E-2,-1.5712407E-1,3.8684344E-1,-1.22878775E-1,-1.08403735E-1,-2.262193E-1,6.38292E-1,-1.8833299E-1,2.705442E-1,1.1585412E-1,-7.8275144E-1,1.0035903E0,-3.7481162E-1,-1.1102333E-2,-7.217063E-2,4.777333E-2,-7.27321E-2,-1.04997925E-1,-6.4382176E-3,-4.6177518E-2,1.1703712E-1,4.9790543E-2,-7.8014046E-2],"categories":[],"categories_nodes":[],"categories_segments":[],"categories_sizes":[],"default_left":[0,0,0,0,0,0,0,0,0,0,0,0,0,0,0,0,0,0,0,0,0,0,0],"id":4,"left_children":[1,3,5,7,-1,9,11,13,15,-1,17,19,21,-1,-1,-1,-1,-1,-1,-1,-1,-1,-1],"loss_changes":[7.0291576E0,3.5235727E0,4.75928E0,2.9408774E0,0E0,8.186282E0,8.329746E0,3.91169E0,3.7418704E0,0E0,1.3404021E0,4.4673004E0,2.6607044E0,0E0,0E0,0E0,0E0,0E0,0E0,0E0,0E0,0E0,0E0],"parents":[2147483647,0,0,1,1,2,2,3,3,5,5,6,6,7,7,8,8,10,10,11,11,12,12],"right_children":[2,4,6,8,-1,10,12,14,16,-1,18,20,22,-1,-1,-1,-1,-1,-1,-1,-1,-1,-1],"split_conditions":[1.6982425E0,1.063235E0,-5.27378E-1,1.0976402E0,-1.08403735E-1,-1.1124766E0,1.4377447E0,6.2085396E-1,1.8816088E0,1.1585412E-1,3.6322552E-1,-1.2485147E0,3.7082276E-1,-1.1102333E-2,-7.217063E-2,4.777333E-2,-7.27321E-2,-1.04997925E-1,-6.4382176E-3,-4.6177518E-2,1.1703712E-1,4.9790543E-2,-7.8014046E-2],"split_indices":[9,3,1,0,0,4,1,0,0,0,5,4,3,0,0,0,0,0,0,0,0,0,0],"split_type":[0,0,0,0,0,0,0,0,0,0,0,0,0,0,0,0,0,0,0,0,0,0,0],"sum_hessian":[1.4313849E2,1.14201584E2,2.8936909E1,1.1122489E2,2.9766955E0,8.445666E0,2.0491243E1,9.580671E1,1.5418175E1,2.1111066E0,6.33456E0,1.5067642E1,5.4236016E0,8.473323E1,1.1073485E1,1.31989E1,2.2192745E0,4.2805967E0,2.0539632E0,1.3589469E0,1.3708694E1,1.6476446E0,3.7759569E0],"tree_param":{"num_deleted":"0","num_feature":"10","num_nodes":"23","size_leaf_vector":"1"}},{"base_weights":[2.7978068E-2,-6.887497E-2,3.8399452E-1,-2.785374E-1,1.13646396E-1,7.183717E-1,-1.9825262E-1,-1.0949231E-1,-7.02264E-1,5.674212E-1,-9.376077E-2,9.299479E-1,-3.9447668E-1,-1.140455E-1,2.5191906E-1,-3.6208957E-2,3.9465632E-2,1.9268079E-2,-8.791388E-2,1.1170916E-2,8.161908E-2,4.441488E-2,-2.455131E-2,1.4180039E-1,5.819253E-2,6.4237528E-3,-7.712745E-2,9.332597E-2,-3.575284E-2],"categories":[],"categories_nodes":[],"categories_segments":[],"categories_sizes":[],"default_left":[0,0,0,0,0,0,0,0,0,0,0,0,0,0,0,0,0,0,0,0,0,0,0,0,0,0,0,0,0],"id":5,"left_children":[1,3,5,7,9,11,13,15,17,19,21,23,25,-1,27,-1,-1,-1,-1,-1,-1,-1,-1,-1,-1,-1,-1,-1,-1],"loss_changes":[5.0270357E0,4.4269404E0,6.2104297E0,3.7726855E0,5.898982E0,5.079219E0,5.442191E0,5.186041E0,2.566218E0,2.1337638E0,3.6588018E0,2.0818453E0,7.235273E-1,0E0,4.0887413E0,0E0,0E0,0E0,0E0,0E0,0E0,0E0,0E0,0E0,0E0,0E0,0E0,0E0,0E0],"parents":[2147483647,0,0,1,1,2,2,3,3,4,4,5,5,6,6,7,7,8,8,9,9,10,10,11,11,12,12,14,14],"right_children":[2,4,6,8,10,12,14,16,18,20,22,24,26,-1,28,-1,-1,-1,-1,-1,-1,-1,-1,-1,-1,-1,-1,-1,-1],"split_conditions":[1.6982425E0,-1.3738607E-1,2.2577503E-1,8.8977367E-1,-3.6924136E-1,1.4377447E0,-8.1288755E-2,3.4569496E-1,-5.678543E-1,-4.5523766E-1,-4.0282243E-1,-2.9196537E-1,1.8272189E0,-1.140455E-1,1.2795258E0,-3.6208957E-2,3.9465632E-2,1.9268079E-2,-8.791388E-2,1.1170916E-2,8.161908E-2,4.441488E-2,-2.455131E-2,1.4180039E-1,5.819253E-2,6.4237528E-3,-7.712745E-2,9.332597E-2,-3.575284E-2],"split_indices":[9,1,4,7,4,1,1,4,2,2,3,7,1,0,0,0,0,0,0,0,0,0,0,0,0,0,0,0,0],"split_type":[0,0,0,0,0,0,0,0,0,0,0,0,0,0,0,0,0,0,0,0,0,0,0,0,0,0,0,0,0],"sum_hessian":[1.440233E2,1.13855774E2,3.0167528E1,5.2743374E1,6.11124E1,1.901415E1,1.1153378E1,3.8601692E1,1.4141682E1,1.862594E1,4.248646E1,1.6114746E1,2.8994036E0,3.1102645E0,8.043113E0,2.59044E1,1.269729E1,2.3189547E0,1.1822727E1,7.088965E0,1.1536975E1,8.924696E0,3.3561764E1,5.4280953E0,1.0686651E1,1.6816623E0,1.2177411E0,3.5467036E0,4.4964094E0],"tree_param":{"num_deleted":"0","num_feature":"10","num_nodes":"29","size_leaf_vector":"1"}},{"base_weights":[-5.924223E-3,-2.22445E-1,1.677103E-1,8.8879234E-1,-2.8272521E-1,-5.5665785E-1,2.2287785E-1,1.3345179E-1,6.506247E-3,3.4940597E-1,-3.5292548E-1,-9.1928965E-1,2.7969837E-2,2.5969732E-1,-8.679872E-2,-6.124372E-2,8.424944E-2,-1.0246068E-2,-5.5411637E-2,-2.5976319E-2,-1.0549593E-1,6.303078E-2,1.4588306E-2],"categories":[],"categories_nodes":[],"categories_segments":[],"categories_sizes":[],"default_left":[0,0,0,0,0,0,0,0,0,0,0,0,0,0,0,0,0,0,0,0,0,0,0],"id":6,"left_children":[1,3,5,7,9,11,13,-1,-1,15,17,19,-1,21,-1,-1,-1,-1,-1,-1,-1,-1,-1],"loss_changes":[5.2966895E0,4.450494E0,3.2492964E0,1.1860867E0,2.7956805E0,2.0224242E0,3.1729403E0,0E0,0E0,3.6091003E0,2.6995983E0,1.10123396E-1,0E0,2.934895E0,0E0,0E0,0E0,0E0,0E0,0E0,0E0,0E0,0E0],"parents":[2147483647,0,0,1,1,2,2,3,3,4,4,5,5,6,6,9,9,10,10,11,11,13,13],"right_children":[2,4,6,8,10,12,14,-1,-1,16,18,20,-1,22,-1,-1,-1,-1,-1,-1,-1,-1,-1],"split_conditions":[-1.3738607E-1,-2.0679426E0,-1.1856141E0,4.569144E-1,-7.2851354E-1,5.9408027E-1,2.4971843E0,1.3345179E-1,6.506247E-3,-9.2790395E-1,-2.5542355E-1,-1.248838E0,2.7969837E-2,-5.611731E-1,-8.679872E-2,-6.124372E-2,8.424944E-2,-1.0246068E-2,-5.5411637E-2,-2.5976319E-2,-1.0549593E-1,6.303078E-2,1.4588306E-2],"split_indices":[1,1,0,3,2,3,1,0,0,1,5,0,0,2,0,0,0,0,0,0,0,0,0],"split_type":[0,0,0,0,0,0,0,0,0,0,0,0,0,0,0,0,0,0,0,0,0,0,0],"sum_hessian":[1.3889403E2,6.1688225E1,7.72058E1,2.4669433E0,5.9221283E1,4.820515E0,7.2385284E1,1.1983933E0,1.26855E0,5.5218153E0,5.3699467E1,3.2933893E0,1.5271257E0,7.075893E1,1.6263602E0,1.7893586E0,3.7324567E0,2.4592836E1,2.910663E1,1.0591677E0,2.2342217E0,1.5558418E1,5.520051E1],"tree_param":{"num_deleted":"0","num_feature":"10","num_nodes":"23","size_leaf_vector":"1"}},{"base_weights":[1.5613098E-2,-1.9151725E-1,2.8472194E-1,1.2247729E-1,-4.5943934E-1,8.9130527E-1,1.6650303E-1,-9.901559E-3,1.8346915E-1,4.6908307E-1,-5.5298835E-1,1.1004033E0,-3.9751034E-2,3.2880586E-1,-4.4392765E-1,3.873333E-2,-2.8392047E-2,-3.660462E-2,8.429609E-2,-8.262407E-2,-2.8359368E-2,-3.187722E-3,1.4279054E-1,9.34422E-3,6.9345556E-2,4.489752E-3,-8.459406E-2],"categories":[],"categories_nodes":[],"categories_segments":[],"categories_sizes":[],"default_left":[0,0,0,0,0,0,0,0,0,0,0,0,0,0,0,0,0,0,0,0,0,0,0,0,0,0,0],"id":7,"left_children":[1,3,5,7,9,11,13,15,-1,17,19,21,-1,23,25,-1,-1,-1,-1,-1,-1,-1,-1,-1,-1,-1,-1],"loss_changes":[8.219445E0,7.0698395E0,4.448958E0,8.897395E0,4.1852016E0,3.1935053E0,5.5835533E0,4.176311E0,0E0,1.7691281E0,2.8219318E0,3.4069748E0,0E0,3.7055583E0,2.386941E0,0E0,0E0,0E0,0E0,0E0,0E0,0E0,0E0,0E0,0E0,0E0,0E0],"parents":[2147483647,0,0,1,1,2,2,3,3,4,4,5,5,6,6,7,7,9,9,10,10,11,11,13,13,14,14],"right_children":[2,4,6,8,10,12,14,16,-1,18,20,22,-1,24,26,-1,-1,-1,-1,-1,-1,-1,-1,-1,-1,-1,-1],"split_conditions":[7.8886974E-1,-5.179956E-1,-3.675266E-1,3.296882E-1,-7.750191E-1,1.6153785E0,-6.599718E-2,-2.1079339E-1,1.8346915E-1,4.863925E-1,-1.7960013E-1,2.1267423E-1,-3.9751034E-2,5.1417303E-1,-1.24614306E-1,3.873333E-2,-2.8392047E-2,-3.660462E-2,8.429609E-2,-8.262407E-2,-2.8359368E-2,-3.187722E-3,1.4279054E-1,9.34422E-3,6.9345556E-2,4.489752E-3,-8.459406E-2],"split_indices":[8,6,5,5,2,7,2,3,0,6,2,2,0,7,4,0,0,0,0,0,0,0,0,0,0,0,0],"split_type":[0,0,0,0,0,0,0,0,0,0,0,0,0,0,0,0,0,0,0,0,0,0,0,0,0,0,0],"sum_hessian":[1.4548058E2,8.236974E1,6.311083E1,3.8174057E1,4.419569E1,9.227079E0,5.3883747E1,3.6357327E1,1.8167288E0,3.6777565E0,4.0517933E1,8.064828E0,1.1622515E0,4.2930607E1,1.0953142E1,1.4672962E1,2.1684366E1,1.1438009E0,2.5339558E0,1.9088781E1,2.1429152E1,2.0118556E0,6.0529723E0,2.6853941E1,1.6076666E1,5.3437543E0,5.609388E0],"tree_param":{"num_deleted":"0","num_feature":"10","num_nodes":"27","size_leaf_vector":"1"}},{"base_weights":[-7.853867E-3,-6.431477E-1,6.0344543E-2,-8.4688836E-1,2.0290457E-1,5.294554E-1,-6.283346E-2,7.361679E-3,-1.0973972E0,8.5288E-2,-4.9423303E-2,1.0347763E0,-8.2642205E-2,2.787137E-1,-1.9239287E-1,6.429558E-2,-5.2103665E-2,-3.6791526E-2,-1.2705377E-1,-2.8884714E-2,1.15714684E-1,1.07151866E-1,-3.5755504E-2,-1.1355641E-2,1.0067537E-1,-6.439984E-2,-1.6080635E-3],"categories":[],"categories_nodes":[],"categories_segments":[],"categories_sizes":[],"default_left":[0,0,0,0,0,0,0,0,0,0,0,0,0,0,0,0,0,0,0,0,0,0,0,0,0,0,0],"id":8,"left_children":[1,3,5,7,9,11,13,15,17,-1,-1,19,21,23,25,-1,-1,-1,-1,-1,-1,-1,-1,-1,-1,-1,-1],"loss_changes":[6.3435903E0,2.618328E0,7.679648E0,2.4972076E0,2.0351894E0,8.630388E0,4.7309446E0,1.5544136E0,6.6936874E-1,0E0,0E0,2.7973347E0,4.640925E0,8.532669E0,6.138451E0,0E0,0E0,0E0,0E0,0E0,0E0,0E0,0E0,0E0,0E0,0E0,0E0],"parents":[2147483647,0,0,1,1,2,2,3,3,4,4,5,5,6,6,7,7,8,8,11,11,12,12,13,13,14,14],"right_children":[2,4,6,8,10,12,14,16,18,-1,-1,20,22,24,26,-1,-1,-1,-1,-1,-1,-1,-1,-1,-1,-1,-1],"split_conditions":[-1.237592E0,1.6982425E0,-5.5291635E-1,-3.4095526E-1,-8.082166E-2,1.8443048E-1,-4.3707192E-1,7.520709E-2,1.4381441E-1,8.5288E-2,-4.9423303E-2,-1.2140803E-2,-1.0024742E0,3.3405566E-1,2.7430326E-1,6.429558E-2,-5.2103665E-2,-3.6791526E-2,-1.2705377E-1,-2.8884714E-2,1.15714684E-1,1.07151866E-1,-3.5755504E-2,-1.1355641E-2,1.0067537E-1,-6.439984E-2,-1.6080635E-3],"split_indices":[7,9,2,5,4,4,3,4,6,0,0,5,6,4,3,0,0,0,0,0,0,0,0,0,0,0,0],"split_type":[0,0,0,0,0,0,0,0,0,0,0,0,0,0,0,0,0,0,0,0,0,0,0,0,0,0,0],"sum_hessian":[1.4451944E2,1.319282E1,1.3132661E2,1.06316E1,2.5612187E0,2.662598E1,1.0470063E2,2.630852E0,8.000749E0,1.2098314E0,1.3513875E0,1.4206872E1,1.2419109E1,2.8477205E1,7.622343E1,1.0958664E0,1.5349855E0,2.1341245E0,5.8666244E0,1.0871593E0,1.3119713E1,1.8316526E0,1.0587457E1,1.905457E1,9.422635E0,2.065786E1,5.5565567E1],"tree_param":{"num_deleted":"0","num_feature":"10","num_nodes":"27","size_leaf_vector":"1"}},{"base_weights":[2.7843604E-2,3.8976595E-1,-9.367644E-2,-1.4207761E-1,6.3668007E-1,-3.4968117E-1,9.406243E-2,7.891648E-1,-5.439305E-1,4.3418735E-1,1.3030165E0,1.5228467E-1,-5.349814E-1,3.5176554E-1,-1.7332919E-1,-2.1914883E-2,1.6153473E-1,1.499161E-2,-1.0065867E-1,1.7478112E-2,9.1420084E-2,1.741578E-1,3.3233862E-2,-3.4804046E-2,5.8547225E-2,2.4986876E-2,-6.502017E-2,-3.8765993E-2,4.9584053E-2,2.8905993E-2,-6.53834E-2],"categories":[],"categories_nodes":[],"categories_segments":[],"categories_sizes":[],"default_left":[0,0,0,0,0,0,0,0,0,0,0,0,0,0,0,0,0,0,0,0,0,0,0,0,0,0,0,0,0,0,0],"id":9,"left_children":[1,3,5,7,9,11,13,15,17,19,21,23,25,27,29,-1,-1,-1,-1,-1,-1,-1,-1,-1,-1,-1,-1,-1,-1,-1,-1],"loss_changes":[6.301915E0,4.818295E0,5.1974044E0,5.0069513E0,2.77641E0,4.329814E0,4.387068E0,3.7657187E0,3.0840316E0,2.392433E0,1.6660337E0,3.0414813E0,3.1992188E0,3.633205E0,7.1835093E0,0E0,0E0,0E0,0E0,0E0,0E0,0E0,0E0,0E0,0E0,0E0,0E0,0E0,0E0,0E0,0E0],"parents":[2147483647,0,0,1,1,2,2,3,3,4,4,5,5,6,6,7,7,8,8,9,9,10,10,11,11,12,12,13,13,14,14],"right_children":[2,4,6,8,10,12,14,16,18,20,22,24,26,28,30,-1,-1,-1,-1,-1,-1,-1,-1,-1,-1,-1,-1,-1,-1,-1,-1],"split_conditions":[-4.3707192E-1,-1.8499522E0,-1.3035299E-1,-3.4583738E0,6.30422E-1,-7.921263E-1,-8.669857E-2,-4.5894104E-1,-1.0024742E0,8.5411616E-2,1.1262559E0,-1.15079604E-1,-7.750191E-1,-4.2340416E-1,-5.428735E-1,-2.1914883E-2,1.6153473E-1,1.499161E-2,-1.0065867E-1,1.7478112E-2,9.1420084E-2,1.741578E-1,3.3233862E-2,-3.4804046E-2,5.8547225E-2,2.4986876E-2,-6.502017E-2,-3.8765993E-2,4.9584053E-2,2.8905993E-2,-6.53834E-2],"split_indices":[3,3,1,3,1,6,5,1,6,2,1,2,2,5,2,0,0,0,0,0,0,0,0,0,0,0,0,0,0,0,0],"split_type":[0,0,0,0,0,0,0,0,0,0,0,0,0,0,0,0,0,0,0,0,0,0,0,0,0,0,0,0,0,0,0],"sum_hessian":[1.4145763E2,3.50025E1,1.0645513E2,1.1232566E1,2.3769932E1,4.4674053E1,6.1781082E1,3.095448E0,8.137118E0,1.9496695E1,4.273238E0,1.209303E1,3.2581024E1,3.1299818E1,3.0481264E1,1.7249633E0,1.3704846E0,3.5256534E0,4.6114645E0,1.3542336E1,5.954358E0,2.3963552E0,1.876883E0,5.7028656E0,6.3901644E0,4.02118E0,2.8559843E1,4.8284473E0,2.647137E1,1.5736486E1,1.4744778E1],"tree_param":{"num_deleted":"0","num_feature":"10","num_nodes":"31","size_leaf_vector":"1"}},{"base_weights":[2.2771625E-2,-3.7741044E-1,1.2549748E-1,3.265616E-1,-5.503729E-1,3.9344424E-1,-5.184203E-2,-5.8129933E-2,7.3783016E-1,-8.991919E-1,-1.3229267E-1,1.0109038E0,2.565254E-1,-2.4768704E-1,1.7980424E-1,1.2881385E-1,-2.3927746E-2,2.1300951E-2,-1.014347E-1,2.9471232E-2,-9.088869E-2,1.3672824E-1,-4.5240834E-2,-1.3541333E-2,5.9050452E-2,-3.7477978E-2,4.3730713E-2,7.290755E-2,-3.4243686E-3],"categories":[],"categories_nodes":[],"categories_segments":[],"categories_sizes":[],"default_left":[0,0,0,0,0,0,0,0,0,0,0,0,0,0,0,0,0,0,0,0,0,0,0,0,0,0,0,0,0],"id":10,"left_children":[1,3,5,7,9,11,13,-1,15,17,19,21,23,25,27,-1,-1,-1,-1,-1,-1,-1,-1,-1,-1,-1,-1,-1,-1],"loss_changes":[5.985416E0,3.8026853E0,5.5177813E0,2.8544495E0,3.4187512E0,3.645812E0,3.2428887E0,0E0,2.949237E0,1.8877258E0,4.315579E0,4.813304E0,5.2044153E0,3.5262966E0,3.8903594E0,0E0,0E0,0E0,0E0,0E0,0E0,0E0,0E0,0E0,0E0,0E0,0E0,0E0,0E0],"parents":[2147483647,0,0,1,1,2,2,3,3,4,4,5,5,6,6,8,8,9,9,10,10,11,11,12,12,13,13,14,14],"right_children":[2,4,6,8,10,12,14,-1,16,18,20,22,24,26,28,-1,-1,-1,-1,-1,-1,-1,-1,-1,-1,-1,-1,-1,-1],"split_conditions":[-9.878043E-1,-5.5584764E-1,-2.2566424E-1,-9.014662E-1,-1.5741952E-1,-7.5604635E-1,5.883599E-1,-5.8129933E-2,4.6166304E-1,-1.248838E0,3.4569496E-1,-1.0250816E-1,-9.2616737E-1,2.5449502E-1,-2.1079339E-1,1.2881385E-1,-2.3927746E-2,2.1300951E-2,-1.014347E-1,2.9471232E-2,-9.088869E-2,1.3672824E-1,-4.5240834E-2,-1.3541333E-2,5.9050452E-2,-3.7477978E-2,4.3730713E-2,7.290755E-2,-3.4243686E-3],"split_indices":[0,2,4,4,2,0,4,0,5,0,4,2,4,5,3,0,0,0,0,0,0,0,0,0,0,0,0,0,0],"split_type":[0,0,0,0,0,0,0,0,0,0,0,0,0,0,0,0,0,0,0,0,0,0,0,0,0,0,0,0,0],"sum_hessian":[1.4344637E2,2.8754698E1,1.1469166E2,5.496288E0,2.325841E1,4.5191734E1,6.949992E1,1.5846965E0,3.9115915E0,1.2052132E1,1.1206279E1,7.0436993E0,3.8148033E1,3.7622658E1,3.1877272E1,2.2986634E0,1.6129283E0,1.0510474E0,1.1001084E1,7.630956E0,3.5753224E0,5.7169933E0,1.3267057E0,1.7824625E1,2.032341E1,3.2116653E1,5.506001E0,8.264217E0,2.3613052E1],"tree_param":{"num_deleted":"0","num_feature":"10","num_nodes":"29","size_leaf_vector":"1"}}]},"name":"gbtree"},"learner_model_param":{"base_score":"[3.4034654E-1]","boost_from_average":"1","num_class":"0","num_feature":"10","num_target":"1"},"objective":{"name":"binary:logistic","reg_loss_param":{"scale_pos_weight":"1"}}},"version":[3,2,0]}